{
    "name": "tree",
    "version": "v3",
    "num_class": 1,
    "num_tree_per_iteration": 1,
    "label_index": 0,
    "max_feature_idx": 9,
    "objective": "regression",
    "average_output": false,
    "feature_names": [
        "Column_0",
        "Column_1",
        "Column_2",
        "Column_3",
        "Column_4",
        "Column_5",
        "Column_6",
        "Column_7",
        "Column_8",
        "Column_9"
    ],
    "monotone_constraints": [],
    "feature_infos": {
        "Column_0": {
            "min_value": 0.0016714217135335163,
            "max_value": 0.9992890277351706,
            "values": []
        },
        "Column_1": {
            "min_value": 0.00012652512448696474,
            "max_value": 0.9970002144769402,
            "values": []
        },
        "Column_2": {
            "min_value": 0.0025528929726444938,
            "max_value": 0.9949393177957037,
            "values": []
        },
        "Column_3": {
            "min_value": 0.0033131941561392875,
            "max_value": 0.9986077147085645,
            "values": []
        },
        "Column_4": {
            "min_value": 0.002439354811297756,
            "max_value": 0.9992468155209064,
            "values": []
        },
        "Column_5": {
            "min_value": 0.0017700355839127546,
            "max_value": 0.9995900347218084,
            "values": []
        },
        "Column_6": {
            "min_value": 0.0008253712453026862,
            "max_value": 0.9989860489599937,
            "values": []
        },
        "Column_7": {
            "min_value": 0.00017845503610003366,
            "max_value": 0.9988399849109032,
            "values": []
        },
        "Column_8": {
            "min_value": 0.0031736290131367806,
            "max_value": 0.9978090137824499,
            "values": []
        },
        "Column_9": {
            "min_value": 0.00483907935505301,
            "max_value": 0.999945372240299,
            "values": []
        }
    },
    "tree_info": [
        {
            "tree_index": 0,
            "num_leaves": 11,
            "num_cat": 0,
            "shrinkage": 1,
            "tree_structure": {
                "split_index": 0,
                "split_feature": 4,
                "split_gain": 2.390700101852417,
                "threshold": 0.150954444988769,
                "decision_type": "<=",
                "default_left": true,
                "missing_type": "None",
                "internal_value": 0.508,
                "internal_weight": 0,
                "internal_count": 500,
                "left_child": {
                    "split_index": 7,
                    "split_feature": 0,
                    "split_gain": 0.7369920015335083,
                    "threshold": 0.6113719188800221,
                    "decision_type": "<=",
                    "default_left": true,
                    "missing_type": "None",
                    "internal_value": 0.491003,
                    "internal_weight": 71,
                    "internal_count": 71,
                    "left_child": {
                        "split_index": 8,
                        "split_feature": 1,
                        "split_gain": 0.642756998538971,
                        "threshold": 0.5590042480032381,
                        "decision_type": "<=",
                        "default_left": true,
                        "missing_type": "None",
                        "internal_value": 0.482781,
                        "internal_weight": 43,
                        "internal_count": 43,
                        "left_child": {
                            "leaf_index": 0,
                            "leaf_value": 0.4952952376093183,
                            "leaf_weight": 21,
                            "leaf_count": 21
                        },
                        "right_child": {
                            "leaf_index": 9,
                            "leaf_value": 0.4708363624215126,
                            "leaf_weight": 22,
                            "leaf_count": 22
                        }
                    },
                    "right_child": {
                        "leaf_index": 8,
                        "leaf_value": 0.5036285711910043,
                        "leaf_weight": 28,
                        "leaf_count": 28
                    }
                },
                "right_child": {
                    "split_index": 1,
                    "split_feature": 0,
                    "split_gain": 1.987470030784607,
                    "threshold": 0.25662549523771233,
                    "decision_type": "<=",
                    "default_left": true,
                    "missing_type": "None",
                    "internal_value": 0.510813,
                    "internal_weight": 429,
                    "internal_count": 429,
                    "left_child": {
                        "split_index": 3,
                        "split_feature": 2,
                        "split_gain": 1.3870699405670166,
                        "threshold": 0.34299361087712216,
                        "decision_type": "<=",
                        "default_left": true,
                        "missing_type": "None",
                        "internal_value": 0.522621,
                        "internal_weight": 107,
                        "internal_count": 107,
                        "left_child": {
                            "leaf_index": 1,
                            "leaf_value": 0.5382810818762392,
                            "leaf_weight": 37,
                            "leaf_count": 37
                        },
                        "right_child": {
                            "split_index": 6,
                            "split_feature": 1,
                            "split_gain": 0.9103400111198425,
                            "threshold": 0.4307520783814453,
                            "decision_type": "<=",
                            "default_left": true,
                            "missing_type": "None",
                            "internal_value": 0.514343,
                            "internal_weight": 70,
                            "internal_count": 70,
                            "left_child": {
                                "leaf_index": 4,
                                "leaf_value": 0.4995076919473135,
                                "leaf_weight": 26,
                                "leaf_count": 26
                            },
                            "right_child": {
                                "split_index": 9,
                                "split_feature": 3,
                                "split_gain": 0.43636399507522583,
                                "threshold": 0.41347987552167775,
                                "decision_type": "<=",
                                "default_left": true,
                                "missing_type": "None",
                                "internal_value": 0.523109,
                                "internal_weight": 44,
                                "internal_count": 44,
                                "left_child": {
                                    "leaf_index": 7,
                                    "leaf_value": 0.5122000000178814,
                                    "leaf_weight": 20,
                                    "leaf_count": 20
                                },
                                "right_child": {
                                    "leaf_index": 10,
                                    "leaf_value": 0.5322000006139278,
                                    "leaf_weight": 24,
                                    "leaf_count": 24
                                }
                            }
                        }
                    },
                    "right_child": {
                        "split_index": 2,
                        "split_feature": 5,
                        "split_gain": 1.7165900468826294,
                        "threshold": 0.07270287079941536,
                        "decision_type": "<=",
                        "default_left": true,
                        "missing_type": "None",
                        "internal_value": 0.506889,
                        "internal_weight": 322,
                        "internal_count": 322,
                        "left_child": {
                            "leaf_index": 2,
                            "leaf_value": 0.4799272717833519,
                            "leaf_weight": 22,
                            "leaf_count": 22
                        },
                        "right_child": {
                            "split_index": 4,
                            "split_feature": 5,
                            "split_gain": 0.9583330154418945,
                            "threshold": 0.12871114080933452,
                            "decision_type": "<=",
                            "default_left": true,
                            "missing_type": "None",
                            "internal_value": 0.508867,
                            "internal_weight": 300,
                            "internal_count": 300,
                            "left_child": {
                                "leaf_index": 3,
                                "leaf_value": 0.5280333338230848,
                                "leaf_weight": 24,
                                "leaf_count": 24
                            },
                            "right_child": {
                                "split_index": 5,
                                "split_feature": 7,
                                "split_gain": 1.3227900266647339,
                                "threshold": 0.7788600780226724,
                                "decision_type": "<=",
                                "default_left": true,
                                "missing_type": "None",
                                "internal_value": 0.5072,
                                "internal_weight": 276,
                                "internal_count": 276,
                                "left_child": {
                                    "leaf_index": 5,
                                    "leaf_value": 0.502971144021447,
                                    "leaf_weight": 201,
                                    "leaf_count": 201
                                },
                                "right_child": {
                                    "leaf_index": 6,
                                    "leaf_value": 0.5185333335399628,
                                    "leaf_weight": 75,
                                    "leaf_count": 75
                                }
                            }
                        }
                    }
                }
            }
        }
    ],
    "feature_importances": {
        "Column_0": 2,
        "Column_1": 2,
        "Column_2": 1,
        "Column_3": 1,
        "Column_4": 1,
        "Column_5": 2,
        "Column_7": 1
    },
    "pandas_categorical": null
}